[ {
  "id" : 0,
  "layerIndex" : 0,
  "weights" : [ -0.68718755, 0.58212125, 0.5176643 ]
}, {
  "id" : 1,
  "layerIndex" : 0,
  "weights" : [ 0.6648965, 0.6926222, -0.78351855 ]
}, {
  "id" : 2,
  "layerIndex" : 0,
  "weights" : [ 0.4190396, -0.18704617, 0.45461988 ]
}, {
  "id" : 3,
  "layerIndex" : 0,
  "weights" : [ -0.1782105, -0.8302579, 0.2710861 ]
}, {
  "id" : 4,
  "layerIndex" : 0,
  "weights" : [ -0.24689126, 0.6432799, -0.8596809 ]
}, {
  "id" : 5,
  "layerIndex" : 0,
  "weights" : [ 0.7048986, -0.4186666, -0.75183356 ]
}, {
  "id" : 6,
  "layerIndex" : 0,
  "weights" : [ 0.36285853, 0.031004548, -0.2987995 ]
}, {
  "id" : 7,
  "layerIndex" : 0,
  "weights" : [ -0.14395833, 0.02094388, 0.93879724 ]
}, {
  "id" : 8,
  "layerIndex" : 0,
  "weights" : [ 0.56644714, 0.2911675, -0.49957108 ]
}, {
  "id" : 9,
  "layerIndex" : 0,
  "weights" : [ 0.70748067, -0.9002613, 0.86755407 ]
}, {
  "id" : 10,
  "layerIndex" : 0,
  "weights" : [ -0.2590096, -0.69503117, 0.04342282 ]
}, {
  "id" : 11,
  "layerIndex" : 0,
  "weights" : [ 0.12556684, -0.74150944, 0.80338585 ]
}, {
  "id" : 12,
  "layerIndex" : 0,
  "weights" : [ 0.4985906, 0.3048706, -0.79324806 ]
}, {
  "id" : 13,
  "layerIndex" : 0,
  "weights" : [ -0.9987228, -0.14259076, -0.6015043 ]
}, {
  "id" : 14,
  "layerIndex" : 0,
  "weights" : [ -0.08163881, -0.03464818, -0.7033098 ]
}, {
  "id" : 15,
  "layerIndex" : 0,
  "weights" : [ 0.36187792, -0.42565346, -0.735615 ]
}, {
  "id" : 16,
  "layerIndex" : 0,
  "weights" : [ -0.2953961, -0.86293876, -0.35245955 ]
}, {
  "id" : 17,
  "layerIndex" : 0,
  "weights" : [ -0.65102077, -0.5263344, 0.25516677 ]
}, {
  "id" : 18,
  "layerIndex" : 0,
  "weights" : [ 0.46395445, -0.1563257, 0.47401893 ]
}, {
  "id" : 19,
  "layerIndex" : 0,
  "weights" : [ 0.7037165, 0.6719185, -0.38909745 ]
}, {
  "id" : 20,
  "layerIndex" : 0,
  "weights" : [ -0.48992956, -0.7807324, -0.55948734 ]
}, {
  "id" : 21,
  "layerIndex" : 0,
  "weights" : [ 0.8174522, -0.57050693, 0.62402856 ]
}, {
  "id" : 22,
  "layerIndex" : 0,
  "weights" : [ -0.6647688, -0.1939485, -0.85162544 ]
}, {
  "id" : 23,
  "layerIndex" : 0,
  "weights" : [ -0.068890214, 0.85391176, -0.8228147 ]
}, {
  "id" : 24,
  "layerIndex" : 0,
  "weights" : [ -0.5553117, 0.3311416, -0.6339519 ]
}, {
  "id" : 25,
  "layerIndex" : 1,
  "weights" : [ 0.36496076, 0.47698292, 0.6948275, -0.21355718, -0.47110355, -0.50002956, -0.10487, -0.9963819, 0.60712224, 0.57316655, -0.3290189, 0.599485, 0.58231896, -0.31737056, 0.30207163, -0.5080791, -0.39503732, 0.9676446, 0.99446154, 0.16223876, -0.07371447, -0.6836664, 0.76513326, -0.267712, 0.9675515, 0.8148696 ]
}, {
  "id" : 26,
  "layerIndex" : 1,
  "weights" : [ -0.8025572, -0.53449786, 0.13762562, 0.25943232, -0.49617895, 1.0026481, -0.5593097, -0.9959725, -0.46484536, -0.7833948, -0.11541661, -0.9749936, 0.2013398, 0.7832867, -0.30531338, 0.13880134, 0.12614933, 0.58787364, 0.8468809, 0.14237134, -1.0315486, -1.0033565, -1.0078311, -0.37564132, -0.7966018, 0.35785225 ]
}, {
  "id" : 27,
  "layerIndex" : 1,
  "weights" : [ 0.82417727, -0.27300498, -0.4659716, -0.0064688795, 0.65343195, 0.7519474, -0.8080198, -0.9023223, 0.41174975, 0.38211066, -0.8349608, 0.8049059, 0.5818784, 0.05638974, -0.041721348, -0.12862688, 0.16204225, 0.69554275, 0.2423805, 0.8776984, 0.74197906, 0.24701631, 0.43950891, -0.26408413, 0.3122476, -0.8992185 ]
}, {
  "id" : 28,
  "layerIndex" : 1,
  "weights" : [ 0.43797338, -0.47406375, 0.22198562, -0.45934555, 0.28316253, -0.7831911, -0.20266877, 0.48956576, 0.10445029, -0.10433855, 0.456538, -0.6878247, -1.0886129, 0.8194665, 0.7269792, 0.93417084, 0.9521163, 0.58530396, -0.72623163, 0.20170513, 0.8388751, -0.6664716, 0.7379664, -0.31059805, -0.41628158, 0.54296476 ]
}, {
  "id" : 29,
  "layerIndex" : 1,
  "weights" : [ -0.55811596, 0.50593936, -0.14921854, 0.39123353, -0.75491977, -1.1319271, 0.7719041, -1.2056184, -0.5153625, -1.1123273, -0.6123997, -0.41049328, 0.21635978, -0.5612183, 0.3430192, -0.4447902, 0.45862296, -0.700109, 1.0803754, 0.32220468, -1.0597595, -0.09406958, -0.059198316, -0.13948049, -0.6889844, -0.006645089 ]
}, {
  "id" : 30,
  "layerIndex" : 1,
  "weights" : [ -0.3915912, 0.44038376, 0.027977278, -0.81722975, -0.28251424, 0.75727814, -0.6658548, -0.23383458, 0.58922726, 0.30631766, -0.07081421, 0.7675222, -0.5192697, -0.3490679, 0.9733463, -0.9833546, -0.8575538, 0.86678845, 1.1622709, 0.70231324, -1.1993759, 0.31033674, 0.503292, 0.45604938, 0.22913559, -0.7563882 ]
}, {
  "id" : 31,
  "layerIndex" : 1,
  "weights" : [ -0.5300035, 1.0579978, -0.6409556, -0.50435674, 0.3063471, -0.69008106, -0.66343695, -0.79066825, 0.26367116, 0.4261959, -0.8542263, -0.38471088, -0.8455334, -2.017803, 0.77029127, -0.1484445, 0.5025781, 0.9512162, -0.30389193, 0.22565089, -0.67456484, 0.0314283, -1.1230766, -0.3788054, 0.4334459, 0.116016336 ]
}, {
  "id" : 32,
  "layerIndex" : 1,
  "weights" : [ 0.40918347, -0.36553016, -0.9483082, -0.57514644, -0.28051567, -0.022435319, 0.12950824, 0.7254958, 0.14210382, 0.018222626, -0.72678876, -0.28045493, 0.05506238, 0.6684603, 0.108924106, 0.1385833, 0.25460723, -0.58439004, 0.53176075, 0.90486413, 0.48331058, 0.58816147, -0.5992534, 0.71895796, -0.5195229, -0.16708848 ]
}, {
  "id" : 33,
  "layerIndex" : 1,
  "weights" : [ -0.4269483, 0.057217572, -0.6503645, 0.8321146, -0.07055302, -0.8531524, 0.2620577, -0.80041224, -0.113265246, -0.40587664, 1.0493736, 0.03354855, 0.8667586, -0.6366979, 0.98485935, -0.61668706, 0.41273546, -0.16371512, 0.39830118, -0.38585123, 0.24450387, 0.4694641, -0.66298497, 0.37242353, -0.589291, 0.576411 ]
}, {
  "id" : 34,
  "layerIndex" : 1,
  "weights" : [ -0.87798405, -0.0065470533, -0.92983305, -0.327705, 1.2363164, 1.1391199, -1.0181992, 0.7311902, 0.18685944, -0.19489607, -0.047229253, -0.6240724, 0.47148338, 0.964263, -0.199914, -0.5179233, -0.3762395, 0.34149852, 0.9317727, 0.374269, -0.8009534, -0.49307045, 0.17163485, -0.052234925, 0.9242587, 0.8845275 ]
}, {
  "id" : 35,
  "layerIndex" : 1,
  "weights" : [ 0.94308305, 0.23643754, -0.6700981, -0.07042118, -0.23898466, -0.03949249, 0.87185836, -0.13484327, -0.98612654, -0.16474892, -0.971466, 0.19886184, -0.2590142, -0.25209647, 0.074107714, 0.945349, 0.38433874, 0.71042913, 0.3411628, -0.7984113, -0.45636374, 0.1162849, -0.6882587, 0.87142795, 0.18308443, 0.5832849 ]
}, {
  "id" : 36,
  "layerIndex" : 1,
  "weights" : [ -0.013034824, 0.70248854, 0.3877119, 0.34628993, 0.6943036, -0.6157179, -1.022658, -0.6533479, 0.058105372, -0.23184104, 0.6205261, -0.6865532, 0.42024758, -0.003710647, 0.41902837, -0.41678348, -0.6403157, -0.2863839, -0.78871757, 0.18578665, 0.66279626, -0.6037299, -0.13043503, 0.16404068, -0.8686212, -0.83026415 ]
}, {
  "id" : 37,
  "layerIndex" : 1,
  "weights" : [ -0.5465853, -0.2673444, 0.81367064, 0.966801, -0.2913318, -0.24275257, -0.5630544, -1.0008435, -0.06532684, 0.058776353, 0.5946208, -0.6685111, 0.104353614, -0.13918737, -0.20365854, -0.5248589, 0.5758239, 0.65687317, -0.3557817, 0.79123265, 0.5798352, -0.91288304, -0.92106485, -0.83035606, -0.555946, -0.82929367 ]
}, {
  "id" : 38,
  "layerIndex" : 1,
  "weights" : [ 0.26590568, -0.8874205, -0.7936532, -0.026128344, 0.5485526, -0.46528482, -0.3840378, -0.37877676, 0.23739287, 0.2528386, -0.6861113, 0.12677482, 0.14314297, -0.854608, 0.14399351, 0.5484611, 0.6039706, -1.0348049, -0.45819566, -0.48007724, 0.8933456, -0.3798034, 0.80176526, 0.391948, -0.38623384, -0.081681944 ]
}, {
  "id" : 39,
  "layerIndex" : 1,
  "weights" : [ -0.14489836, 0.18004169, 0.44765332, -0.091035545, 0.32944775, 0.049706023, -0.05906915, 0.7463654, -0.9291506, -0.30281192, 0.40139368, -0.4631689, 0.18754199, -0.61400855, 0.09348748, -0.13169178, -0.81265247, -0.84446037, 0.98495847, -0.84752035, -0.33452335, 0.7028038, 0.11951992, 0.074754246, -0.7694845, -0.1444885 ]
}, {
  "id" : 40,
  "layerIndex" : 1,
  "weights" : [ 0.48409504, 0.4098156, 0.94947064, 0.93493104, -0.7678416, -0.055366024, -0.7684028, -0.9324268, -0.9373623, -0.79262084, 0.83050334, -0.74399453, 0.34655303, -0.3777623, 0.6664732, 0.81946594, -0.80289596, -0.67698914, -0.3273325, -0.3436866, 0.9970283, 0.12850949, 0.39758238, 0.41360664, 0.6028246, -0.16600643 ]
}, {
  "id" : 41,
  "layerIndex" : 1,
  "weights" : [ -0.6737406, 0.48847225, 0.20412762, -0.17104809, 0.29417822, -0.114662044, 0.61776227, -0.92567, -0.47998405, 0.6434946, 0.5810377, 0.47490802, 0.250253, 0.57975394, 0.2584033, -0.44362286, 0.8198128, -0.33673805, -0.6822864, 0.69205356, -1.1399227, 0.9080796, 0.98838127, -0.14290303, 0.7746613, -0.35602644 ]
}, {
  "id" : 42,
  "layerIndex" : 1,
  "weights" : [ 0.6499263, 0.22205351, 0.026377913, 0.092658035, -1.0438257, -0.65801924, 0.149774, -0.32815975, 0.6300459, 0.45787284, -0.78819555, -0.08632281, -0.85161966, 0.033490583, -0.71295804, 0.55939937, 0.28449687, 0.041009452, -0.14089835, 0.7912358, 0.2221665, 0.2138102, -0.53524965, -0.27493313, 0.15130141, -0.30742216 ]
}, {
  "id" : 43,
  "layerIndex" : 1,
  "weights" : [ -0.2547027, -0.54043263, 0.6745889, -0.76230806, -0.5410327, 0.21319164, 0.6113312, 0.40424457, -0.7919244, 0.47478113, -0.478573, 0.7032346, -0.35359383, -0.0950975, 0.26701084, 0.2164928, -0.21336257, 0.093447596, -0.11876475, -0.58808386, -0.7618489, -0.08530867, 0.359933, 0.62574965, 0.5499606, 0.99607635 ]
}, {
  "id" : 44,
  "layerIndex" : 1,
  "weights" : [ 0.13206632, -0.3141787, -0.762775, 0.49361283, -0.851314, -0.7653876, -1.0653882, 0.8509059, 0.6189249, 0.37718728, 0.36380112, -0.33471233, -0.9788778, -0.7307966, -0.7194167, -0.9576841, -0.5088874, -0.6071339, -0.045521595, 0.15501001, -0.86099875, -0.0653538, 0.874919, -0.1664445, -0.62715703, -0.69766563 ]
}, {
  "id" : 45,
  "layerIndex" : 1,
  "weights" : [ 0.4713037, 0.65644103, -0.95735204, -0.5876681, -0.2073944, 0.06743293, 0.0912389, 0.103364356, -0.20055778, 0.79000676, 0.5806648, 0.044099938, -0.6311904, -0.7431725, 0.11135672, 0.24328828, 0.6793901, 0.8102531, -0.45754692, -0.9982964, -0.39370495, 0.10747861, -0.30930674, -0.09060541, -0.6597968, -0.20798106 ]
}, {
  "id" : 46,
  "layerIndex" : 1,
  "weights" : [ -0.47102594, -0.38299823, -0.6663544, 0.7617816, -0.5216243, -0.0035447746, 0.98201644, -0.2941298, 0.78027284, -0.13161805, -0.5679271, 0.27147368, -0.36706424, -0.013432819, 0.91663253, 0.51117665, -0.49801883, -0.04816536, -0.65469426, -0.6243054, 0.7986475, 0.1611433, -0.37957075, -0.79363304, -0.83233124, 0.16802059 ]
}, {
  "id" : 47,
  "layerIndex" : 1,
  "weights" : [ 1.0440357, -0.29256177, -0.34799978, -0.5463107, -0.72046447, 0.09785128, -0.8141305, 0.9179323, 0.6622194, 0.018054366, -0.64064944, 0.60038316, -0.58903897, -0.5486537, 0.731019, -0.8788226, -0.9708473, 0.2625088, 0.3764984, 0.38605553, -0.23928484, -0.17694457, 0.2510083, 0.51798505, 0.89409286, 0.7905478 ]
}, {
  "id" : 48,
  "layerIndex" : 1,
  "weights" : [ -0.90298176, 0.19742215, -0.5265854, 0.6562601, -0.79127765, -0.094557494, 0.93685085, 0.100723736, 0.8214071, -0.2675792, 0.7276714, 0.5562113, -0.006884994, 0.7157583, 1.0728216, 0.07586846, 0.8678045, 1.0846522, -0.37942985, 0.214415, 0.81113994, 0.71852624, -0.10876447, 0.2040343, -0.2861143, 0.44381645 ]
}, {
  "id" : 49,
  "layerIndex" : 1,
  "weights" : [ 0.34456822, -0.42928538, 0.58538854, -0.39834997, -0.79930156, 0.17272536, 0.5131204, -0.6427649, 0.6384418, -0.34410787, -0.1895051, 0.65616536, 0.8642542, 0.5329912, -0.0914283, -0.76030993, 0.5509873, -0.6264571, 0.6892883, 0.6950911, -0.5123951, 0.34204987, -0.9626048, -0.3962397, 1.0915264, 0.98785627 ]
}, {
  "id" : 50,
  "layerIndex" : 1,
  "weights" : [ -0.07933108, -0.5688235, -0.27704588, -0.18111727, 0.94272405, 0.12463998, -0.5532759, -1.2814924, 0.88739413, -1.1031752, -1.3095624, 0.4860895, -0.6751097, -0.12688813, -0.8359214, -0.71225184, 0.44253737, 0.9022305, 0.37789142, 0.7635634, -0.3170243, 0.48264086, 0.079777576, -0.030531725, -0.48543, 0.08774428 ]
}, {
  "id" : 51,
  "layerIndex" : 1,
  "weights" : [ -0.620574, -0.87980807, -0.61037225, -0.33249894, 0.52331436, -0.69719714, 0.8614826, -0.42748895, -0.27468947, -0.6870785, -0.27523458, -0.41589195, -0.32913694, 0.16891076, -0.50722754, -0.8728113, 0.6566426, 0.5618187, -0.5315235, -0.8871429, 0.92793363, 0.34498364, -0.15938671, 0.52030647, -0.3318283, 0.56587017 ]
}, {
  "id" : 52,
  "layerIndex" : 1,
  "weights" : [ 0.7508841, 0.6844198, 0.19261236, 0.42697784, -0.005823709, -0.65716743, -0.9235801, 0.74361676, 0.4292679, -0.9507452, -0.81056595, 0.77778864, 0.7350738, 0.4751652, 0.37318265, -0.99621814, -0.7623564, -0.7890898, -0.9079722, -0.23429616, 0.049142506, -0.2588156, 0.87381935, 0.7618795, 0.1843534, -0.31299302 ]
}, {
  "id" : 53,
  "layerIndex" : 1,
  "weights" : [ -0.051697385, 0.20434266, 0.31245854, 0.88629043, -0.20379272, -0.97499114, -0.711629, -0.09184741, 0.7733971, -0.41226882, 0.8537873, -0.31514135, -0.9800131, -1.0008515, 0.8222184, 0.008114236, -0.3929446, -0.16862871, -0.95417005, -0.34133863, 0.32370475, -0.3051435, -0.5313493, 0.298988, 0.6521586, -0.17159274 ]
}, {
  "id" : 54,
  "layerIndex" : 1,
  "weights" : [ -0.95357734, 0.96699053, 0.92033696, 0.15597036, 0.66253847, 0.18074721, -0.7574164, -0.28322747, 0.80059344, 0.75325966, 0.2951363, -0.35180447, 0.3659349, 0.013483747, -0.09382764, -0.42764068, -0.30451676, -0.1059737, 0.6805784, -0.294219, 0.62845546, 0.5842371, 0.54083425, -0.11020837, -0.3348188, -0.2502357 ]
}, {
  "id" : 55,
  "layerIndex" : 1,
  "weights" : [ 0.20915674, 0.22196649, -0.77404416, 0.79095966, -0.029307483, 0.68964726, 0.9479922, 0.23220441, -0.08382567, 0.029636733, 0.6144348, -0.5674919, -0.10787085, 0.4617441, -0.94518715, -0.9052025, -0.5553849, -0.1568617, 0.2180864, 0.31463742, 0.6250401, -0.44004744, 0.19898033, -0.42256966, -0.33140782, -0.047658354 ]
}, {
  "id" : 56,
  "layerIndex" : 1,
  "weights" : [ -0.37034842, -0.15521184, -0.5587021, -0.5967307, 0.6026217, 0.2606291, 0.23248225, -0.91585666, 0.14905232, 0.12372731, 0.27716413, -0.31911093, -0.9276508, 0.79744786, -0.07181827, -0.066014744, -0.41524085, -0.8855021, 0.4107449, 0.008168174, -0.47994003, 0.22497845, -0.48534444, -0.28366184, -0.69157207, 0.6670147 ]
}, {
  "id" : 57,
  "layerIndex" : 1,
  "weights" : [ -0.3451643, -0.3332865, 0.5829645, 0.2819286, 0.1438732, -0.6306094, 0.21609648, 0.29940662, -0.89761454, -0.98923373, -0.10974354, 0.8350241, -0.489299, -0.47990116, 0.032018974, 0.11837562, -0.36598313, -0.7734509, 1.3681692, 0.5770152, -0.6174012, -0.38845527, 0.08572132, 0.99570644, -0.7056895, 0.6552607 ]
}, {
  "id" : 58,
  "layerIndex" : 1,
  "weights" : [ -0.014298829, 0.476171, -0.74153435, 0.81778765, 0.60034376, -0.09654455, -0.14127807, -0.9072999, 0.72735244, 0.6013788, -0.30600527, 0.5080782, 0.26596266, -1.4014249, 0.52276564, -0.12468209, 0.39328763, -0.01739511, -0.5777195, -0.45587447, -0.14371142, -0.47772324, 0.9365477, 0.72872037, -0.20202492, 0.19076645 ]
}, {
  "id" : 59,
  "layerIndex" : 1,
  "weights" : [ -0.41718313, -0.7796141, 0.7742446, -1.0448159, 0.44046527, -0.08601084, 0.3887646, 0.4150313, 0.7830331, -0.10094954, -1.0421181, -0.8775469, -0.52434456, -0.3026145, -0.89579725, 0.8793272, 0.81003916, -0.3602801, -0.04721485, -0.69905496, -0.643224, 0.0201328, -0.7926204, 0.7371477, 0.7394374, 1.2692126 ]
}, {
  "id" : 60,
  "layerIndex" : 1,
  "weights" : [ -0.12046722, 0.9899014, -0.9684528, -0.5537306, -0.71755683, 0.52950174, -0.65047985, -0.12014069, -0.73655605, 0.593385, 0.027078407, 0.80742204, 0.97772235, -0.6337783, 0.22157738, 0.34071556, -0.19360414, -0.5480441, -0.51201177, 0.9187386, 0.8859772, 0.20834999, -0.5472596, -0.3361596, -0.39383912, 0.18911684 ]
}, {
  "id" : 61,
  "layerIndex" : 1,
  "weights" : [ 0.47424987, 0.50190294, 0.32631367, -0.36015308, 0.9217053, 0.7501463, -0.35348108, 0.7667516, -0.3833087, -0.50819457, -0.12404915, 0.7910225, -0.05505953, 1.4856547, -0.056587055, -0.22211622, -0.8756822, -0.73766583, 1.1956823, 0.40616235, 0.4533466, -0.17859203, -0.90664387, -0.14793952, 0.9442116, 0.9609562 ]
}, {
  "id" : 62,
  "layerIndex" : 1,
  "weights" : [ 0.7077674, 0.63102734, 0.03802361, 0.07845801, 0.8531586, -0.35217744, 0.53905773, 0.52548593, 0.6116863, 0.8118713, 0.98956114, -0.84795123, 0.03742567, 0.9911953, -0.432312, -0.7253217, 0.19636306, -0.58114964, -0.27013448, -0.08472816, 0.37120977, -0.5555695, -0.57642853, 0.86587894, -1.0088326, -0.1533776 ]
}, {
  "id" : 63,
  "layerIndex" : 1,
  "weights" : [ 0.18170163, 0.016199104, -0.2710476, 0.6252749, -0.14059328, 0.58190554, -0.13502088, 0.1102664, -0.67302835, -0.42577037, 0.2518189, -0.6609436, -0.9596506, -0.13692293, -0.7092656, -0.24943596, 0.8283655, -0.32973042, -0.46782437, 0.583158, -0.20048608, -0.59782493, -0.83247733, 0.41231596, -0.45762977, -0.61225444 ]
}, {
  "id" : 64,
  "layerIndex" : 1,
  "weights" : [ -1.0890423, -0.21915628, 0.8391986, 0.08195143, -0.8071457, -0.8761848, 0.5203849, -0.7404134, 0.5602114, 0.6223507, -0.36003193, -0.86849785, -0.6803167, 0.08822339, -0.49414268, -0.73260945, 0.2141357, 0.22055545, 0.73930544, 0.67620516, 0.9109752, -0.2774954, 0.02849291, -0.1621801, 0.97180134, -0.030003307 ]
}, {
  "id" : 65,
  "layerIndex" : 1,
  "weights" : [ -0.9078405, -0.93736386, -0.17908008, 0.2764477, -0.65467185, 0.2982374, 0.5599596, 0.3843889, -1.062156, -0.4882531, -1.142855, 0.41838765, 0.20871988, 0.85102224, -0.20797057, 0.16588874, -0.7385763, -0.14212082, -0.4304651, 0.028482992, 0.58390725, 0.74756706, 0.6167186, -0.92860377, 0.7514001, -0.5642054 ]
}, {
  "id" : 66,
  "layerIndex" : 1,
  "weights" : [ -1.002535, 0.65881616, 0.67105, 0.08871512, -0.28979144, -0.6698225, -0.3789975, -0.17593457, -0.44704497, 0.6574959, 0.11194959, -0.7228196, 0.36784413, -0.2324407, 0.54340774, 0.44964558, 0.7309279, -0.36870357, -0.7023254, -0.026329271, 0.32022718, 1.0169532, 0.33911556, 0.81379545, -0.4784147, 0.63773185 ]
}, {
  "id" : 67,
  "layerIndex" : 1,
  "weights" : [ 0.6683705, 0.023087151, 0.37833357, -1.216077, -1.6986309, 0.15924153, -0.57047373, 1.5635327, 0.55511826, 1.1976109, 0.18922357, -1.2475091, 1.1533235, 2.0302773, 0.27379924, 0.7328939, -0.27047783, -0.22706762, -0.9115042, -0.11076771, 0.05818866, 0.22440003, -0.106991075, -0.5365708, -1.3974319, 0.87872773 ]
}, {
  "id" : 68,
  "layerIndex" : 1,
  "weights" : [ -0.23804621, 0.7187246, -0.12740204, 0.14682162, -0.6741836, 1.1071719, 0.26520604, -0.8244009, 0.71871895, 0.72932637, -0.75083596, -0.10889469, -0.9318903, 0.91853905, 0.7231926, 0.9622798, -0.38574296, -0.18150316, 0.24045652, 0.21509624, 0.28937995, -0.23069283, -0.9607087, -0.043791033, 0.75835985, 0.8364137 ]
}, {
  "id" : 69,
  "layerIndex" : 1,
  "weights" : [ -0.68609536, -0.7752495, 0.06347727, -0.8096241, -0.44873384, 0.59946966, -0.67670596, 0.3504812, -0.5048694, -0.40747198, 0.4082755, 0.9115719, -0.41086808, 0.72316116, 0.9172875, -0.8219725, 0.26523066, -0.7416506, -0.42887625, -0.29913744, -0.76539314, 0.050559185, -1.2110869, -0.87377936, -0.064645864, -0.57569015 ]
}, {
  "id" : 70,
  "layerIndex" : 1,
  "weights" : [ 0.8418486, -0.8856714, 0.89239967, -0.3023256, -0.68850994, -0.36676142, 0.33553183, 0.61056453, -0.17205389, 0.44715932, -0.9350661, -0.45524532, -0.13744639, 0.33534357, -0.22868368, 0.6661051, 0.2970524, 0.83002234, 0.05856662, 0.5239805, -0.61093485, -0.8784422, -0.7090041, -0.8325963, -0.034128558, -0.95937914 ]
}, {
  "id" : 71,
  "layerIndex" : 1,
  "weights" : [ -0.13746981, 0.30101973, 0.7862463, -0.48717046, -0.83993065, -0.629364, 0.5577034, -0.0449373, 0.74094737, -0.72537774, 0.9051869, -0.24619578, -0.32089707, -1.1947076, -0.36270782, 0.14130574, -0.12582904, 0.89592063, -0.081645004, 0.2219519, -0.7198381, -0.57546496, -0.019631684, -0.13092236, 0.23617359, -1.2100477 ]
}, {
  "id" : 72,
  "layerIndex" : 1,
  "weights" : [ -0.45136344, 0.38457018, -0.6196617, -0.4668993, -0.21343586, -0.77933073, 0.42164272, 0.8494643, -0.61962736, -0.22594321, 0.35498202, 0.3366518, 0.7110146, -0.87930334, -0.72565615, 0.22757152, 0.8137552, 1.0550855, 0.22379237, 0.39575383, 0.56494373, -0.3243951, 0.013714586, -0.20128673, -0.19671942, -0.6343338 ]
}, {
  "id" : 73,
  "layerIndex" : 1,
  "weights" : [ 0.6775294, -0.8164632, 0.09553712, 0.97073245, 0.15612549, 0.41147652, 0.14551687, 0.78755337, -0.3318903, -0.65396523, 0.13458721, 0.6417502, 0.53283113, -0.64950275, 0.097164534, -0.6652082, -0.46566918, 0.59971577, -0.6794287, 0.24197306, 0.7105949, -1.0446366, -0.24232551, -0.7723727, 0.31613865, -0.51260215 ]
}, {
  "id" : 74,
  "layerIndex" : 1,
  "weights" : [ 0.5228102, 0.5259746, -0.6392019, -0.6299055, 1.4740644, 0.1086599, -0.19235046, -0.25823334, 0.65081936, 0.29595134, 0.3331587, 0.19181538, 0.5523283, -0.26088575, 0.9614268, 0.10425627, 0.8047162, 0.439757, 0.70646113, -0.57785255, 0.19027968, 0.023886815, 0.88271564, 0.32945204, -0.11539558, -0.69821405 ]
}, {
  "id" : 75,
  "layerIndex" : 2,
  "weights" : [ 1.013214, 0.7210991, 0.9411194, -0.24275109, -1.0503826, -0.21745245, 1.647658, 1.1774048, 0.9485809, 0.69461334, 0.13390402, 0.70852375, 1.0300025, 0.12953065, -0.31469378, 0.41708726, 1.0209869, -0.73259306, 0.15149298, 0.87033737, -0.66742325, 0.19705787, -0.41344914, -0.84237444, -0.276425, -0.6605145, -2.4507961, 0.10670945, 0.39438772, 0.9384654, 0.03617105, 0.3341109, 1.9465774, 0.51798046, 2.0232766, 0.69811785, -1.1411645, -0.77005017, 0.41044533, 0.60997885, 0.03027833, -0.62042314, 1.949336, 1.9578574, 0.64298457, -0.2627688, -0.77609265, -0.23372275, 0.31956163, -0.6641107, -1.6501405 ]
} ]